<?xml version="1.0" encoding="UTF-8"?>
<PMML xmlns="http://www.dmg.org/PMML-4_4" version="4.4">
    <Header copyright="Copyright (c) 2018 Software AG" description="Default Description">
        <Application name="Nyoka" version="4.1.0"/>
        <Timestamp>2020-02-26 20:29:37.706687</Timestamp>
    </Header>
    <DataDictionary numberOfFields="113">
        <DataField name="age" optype="continuous" dataType="double"/>
        <DataField name="woman" optype="continuous" dataType="double"/>
        <DataField name="cat17" optype="continuous" dataType="double"/>
        <DataField name="cat74" optype="continuous" dataType="double"/>
        <DataField name="cat42" optype="continuous" dataType="double"/>
        <DataField name="cat96" optype="continuous" dataType="double"/>
        <DataField name="cat13" optype="continuous" dataType="double"/>
        <DataField name="cat16" optype="continuous" dataType="double"/>
        <DataField name="cat11" optype="continuous" dataType="double"/>
        <DataField name="cat35" optype="continuous" dataType="double"/>
        <DataField name="cat60" optype="continuous" dataType="double"/>
        <DataField name="cat68" optype="continuous" dataType="double"/>
        <DataField name="cat10" optype="continuous" dataType="double"/>
        <DataField name="cat37" optype="continuous" dataType="double"/>
        <DataField name="u4" optype="continuous" dataType="double"/>
        <DataField name="cat29" optype="continuous" dataType="double"/>
        <DataField name="cat98" optype="continuous" dataType="double"/>
        <DataField name="cat40" optype="continuous" dataType="double"/>
        <DataField name="cat46" optype="continuous" dataType="double"/>
        <DataField name="cat2" optype="continuous" dataType="double"/>
        <DataField name="cat41" optype="continuous" dataType="double"/>
        <DataField name="cat44" optype="continuous" dataType="double"/>
        <DataField name="cat89" optype="continuous" dataType="double"/>
        <DataField name="cat53" optype="continuous" dataType="double"/>
        <DataField name="cat23" optype="continuous" dataType="double"/>
        <DataField name="cat21" optype="continuous" dataType="double"/>
        <DataField name="cat36" optype="continuous" dataType="double"/>
        <DataField name="cat8" optype="continuous" dataType="double"/>
        <DataField name="cat20" optype="continuous" dataType="double"/>
        <DataField name="cat67" optype="continuous" dataType="double"/>
        <DataField name="cat4" optype="continuous" dataType="double"/>
        <DataField name="cat81" optype="continuous" dataType="double"/>
        <DataField name="cat84" optype="continuous" dataType="double"/>
        <DataField name="cat27" optype="continuous" dataType="double"/>
        <DataField name="cat55" optype="continuous" dataType="double"/>
        <DataField name="u9" optype="continuous" dataType="double"/>
        <DataField name="cat34" optype="continuous" dataType="double"/>
        <DataField name="cat22" optype="continuous" dataType="double"/>
        <DataField name="cat71" optype="continuous" dataType="double"/>
        <DataField name="cat32" optype="continuous" dataType="double"/>
        <DataField name="cat3" optype="continuous" dataType="double"/>
        <DataField name="cat43" optype="continuous" dataType="double"/>
        <DataField name="cat52" optype="continuous" dataType="double"/>
        <DataField name="cat83" optype="continuous" dataType="double"/>
        <DataField name="cat7" optype="continuous" dataType="double"/>
        <DataField name="cat26" optype="continuous" dataType="double"/>
        <DataField name="cat15" optype="continuous" dataType="double"/>
        <DataField name="u3" optype="continuous" dataType="double"/>
        <DataField name="cat70" optype="continuous" dataType="double"/>
        <DataField name="u5" optype="continuous" dataType="double"/>
        <DataField name="cat24" optype="continuous" dataType="double"/>
        <DataField name="cat49" optype="continuous" dataType="double"/>
        <DataField name="cat1" optype="continuous" dataType="double"/>
        <DataField name="cat19" optype="continuous" dataType="double"/>
        <DataField name="u1" optype="continuous" dataType="double"/>
        <DataField name="cat77" optype="continuous" dataType="double"/>
        <DataField name="cat72" optype="continuous" dataType="double"/>
        <DataField name="cat91" optype="continuous" dataType="double"/>
        <DataField name="cat73" optype="continuous" dataType="double"/>
        <DataField name="cat57" optype="continuous" dataType="double"/>
        <DataField name="cat87" optype="continuous" dataType="double"/>
        <DataField name="cat75" optype="continuous" dataType="double"/>
        <DataField name="cat54" optype="continuous" dataType="double"/>
        <DataField name="cat33" optype="continuous" dataType="double"/>
        <DataField name="cat61" optype="continuous" dataType="double"/>
        <DataField name="cat59" optype="continuous" dataType="double"/>
        <DataField name="cat63" optype="continuous" dataType="double"/>
        <DataField name="cat9" optype="continuous" dataType="double"/>
        <DataField name="cat99" optype="continuous" dataType="double"/>
        <DataField name="cat76" optype="continuous" dataType="double"/>
        <DataField name="cat95" optype="continuous" dataType="double"/>
        <DataField name="u0" optype="continuous" dataType="double"/>
        <DataField name="cat86" optype="continuous" dataType="double"/>
        <DataField name="cat97" optype="continuous" dataType="double"/>
        <DataField name="cat58" optype="continuous" dataType="double"/>
        <DataField name="cat69" optype="continuous" dataType="double"/>
        <DataField name="cat88" optype="continuous" dataType="double"/>
        <DataField name="cat0" optype="continuous" dataType="double"/>
        <DataField name="cat56" optype="continuous" dataType="double"/>
        <DataField name="u2" optype="continuous" dataType="double"/>
        <DataField name="cat85" optype="continuous" dataType="double"/>
        <DataField name="cat25" optype="continuous" dataType="double"/>
        <DataField name="cat94" optype="continuous" dataType="double"/>
        <DataField name="u6" optype="continuous" dataType="double"/>
        <DataField name="cat47" optype="continuous" dataType="double"/>
        <DataField name="cat51" optype="continuous" dataType="double"/>
        <DataField name="cat80" optype="continuous" dataType="double"/>
        <DataField name="cat93" optype="continuous" dataType="double"/>
        <DataField name="cat5" optype="continuous" dataType="double"/>
        <DataField name="cat18" optype="continuous" dataType="double"/>
        <DataField name="cat79" optype="continuous" dataType="double"/>
        <DataField name="cat48" optype="continuous" dataType="double"/>
        <DataField name="cat78" optype="continuous" dataType="double"/>
        <DataField name="cat65" optype="continuous" dataType="double"/>
        <DataField name="cat14" optype="continuous" dataType="double"/>
        <DataField name="cat50" optype="continuous" dataType="double"/>
        <DataField name="cat30" optype="continuous" dataType="double"/>
        <DataField name="cat31" optype="continuous" dataType="double"/>
        <DataField name="cat92" optype="continuous" dataType="double"/>
        <DataField name="cat28" optype="continuous" dataType="double"/>
        <DataField name="cat38" optype="continuous" dataType="double"/>
        <DataField name="cat64" optype="continuous" dataType="double"/>
        <DataField name="cat62" optype="continuous" dataType="double"/>
        <DataField name="cat6" optype="continuous" dataType="double"/>
        <DataField name="cat39" optype="continuous" dataType="double"/>
        <DataField name="cat45" optype="continuous" dataType="double"/>
        <DataField name="cat66" optype="continuous" dataType="double"/>
        <DataField name="cat12" optype="continuous" dataType="double"/>
        <DataField name="cat82" optype="continuous" dataType="double"/>
        <DataField name="u7" optype="continuous" dataType="double"/>
        <DataField name="u8" optype="continuous" dataType="double"/>
        <DataField name="cat90" optype="continuous" dataType="double"/>
        <DataField name="label" optype="categorical" dataType="integer">
            <Value value="0"/>
            <Value value="1"/>
        </DataField>
    </DataDictionary>
    <TransformationDictionary>
        <DerivedField name="minMaxScaler(age)" optype="continuous" dataType="double">
            <Apply function="+">
                <Apply function="*">
                    <FieldRef field="age"/>
                    <Constant dataType="double">0.0256410256410256</Constant>
                </Apply>
                <Constant dataType="double">-0.3846153846153846</Constant>
            </Apply>
        </DerivedField>
        <DerivedField name="minMaxScaler(woman)" optype="continuous" dataType="double">
            <Apply function="+">
                <Apply function="*">
                    <FieldRef field="woman"/>
                    <Constant dataType="double">1.0000000000000000</Constant>
                </Apply>
                <Constant dataType="double">0.0000000000000000</Constant>
            </Apply>
        </DerivedField>
        <DerivedField name="minMaxScaler(cat17)" optype="continuous" dataType="double">
            <Apply function="+">
                <Apply function="*">
                    <FieldRef field="cat17"/>
                    <Constant dataType="double">1.0000000000000000</Constant>
                </Apply>
                <Constant dataType="double">0.0000000000000000</Constant>
            </Apply>
        </DerivedField>
        <DerivedField name="minMaxScaler(cat74)" optype="continuous" dataType="double">
            <Apply function="+">
                <Apply function="*">
                    <FieldRef field="cat74"/>
                    <Constant dataType="double">1.0000000000000000</Constant>
                </Apply>
                <Constant dataType="double">0.0000000000000000</Constant>
            </Apply>
        </DerivedField>
        <DerivedField name="minMaxScaler(cat42)" optype="continuous" dataType="double">
            <Apply function="+">
                <Apply function="*">
                    <FieldRef field="cat42"/>
                    <Constant dataType="double">1.0000000000000000</Constant>
                </Apply>
                <Constant dataType="double">0.0000000000000000</Constant>
            </Apply>
        </DerivedField>
        <DerivedField name="minMaxScaler(cat96)" optype="continuous" dataType="double">
            <Apply function="+">
                <Apply function="*">
                    <FieldRef field="cat96"/>
                    <Constant dataType="double">1.0000000000000000</Constant>
                </Apply>
                <Constant dataType="double">0.0000000000000000</Constant>
            </Apply>
        </DerivedField>
        <DerivedField name="minMaxScaler(cat13)" optype="continuous" dataType="double">
            <Apply function="+">
                <Apply function="*">
                    <FieldRef field="cat13"/>
                    <Constant dataType="double">1.0000000000000000</Constant>
                </Apply>
                <Constant dataType="double">0.0000000000000000</Constant>
            </Apply>
        </DerivedField>
        <DerivedField name="minMaxScaler(cat16)" optype="continuous" dataType="double">
            <Apply function="+">
                <Apply function="*">
                    <FieldRef field="cat16"/>
                    <Constant dataType="double">1.0000000000000000</Constant>
                </Apply>
                <Constant dataType="double">0.0000000000000000</Constant>
            </Apply>
        </DerivedField>
        <DerivedField name="minMaxScaler(cat11)" optype="continuous" dataType="double">
            <Apply function="+">
                <Apply function="*">
                    <FieldRef field="cat11"/>
                    <Constant dataType="double">1.0000000000000000</Constant>
                </Apply>
                <Constant dataType="double">0.0000000000000000</Constant>
            </Apply>
        </DerivedField>
        <DerivedField name="minMaxScaler(cat35)" optype="continuous" dataType="double">
            <Apply function="+">
                <Apply function="*">
                    <FieldRef field="cat35"/>
                    <Constant dataType="double">1.0000000000000000</Constant>
                </Apply>
                <Constant dataType="double">0.0000000000000000</Constant>
            </Apply>
        </DerivedField>
        <DerivedField name="minMaxScaler(cat60)" optype="continuous" dataType="double">
            <Apply function="+">
                <Apply function="*">
                    <FieldRef field="cat60"/>
                    <Constant dataType="double">1.0000000000000000</Constant>
                </Apply>
                <Constant dataType="double">0.0000000000000000</Constant>
            </Apply>
        </DerivedField>
        <DerivedField name="minMaxScaler(cat68)" optype="continuous" dataType="double">
            <Apply function="+">
                <Apply function="*">
                    <FieldRef field="cat68"/>
                    <Constant dataType="double">1.0000000000000000</Constant>
                </Apply>
                <Constant dataType="double">0.0000000000000000</Constant>
            </Apply>
        </DerivedField>
        <DerivedField name="minMaxScaler(cat10)" optype="continuous" dataType="double">
            <Apply function="+">
                <Apply function="*">
                    <FieldRef field="cat10"/>
                    <Constant dataType="double">1.0000000000000000</Constant>
                </Apply>
                <Constant dataType="double">0.0000000000000000</Constant>
            </Apply>
        </DerivedField>
        <DerivedField name="minMaxScaler(cat37)" optype="continuous" dataType="double">
            <Apply function="+">
                <Apply function="*">
                    <FieldRef field="cat37"/>
                    <Constant dataType="double">1.0000000000000000</Constant>
                </Apply>
                <Constant dataType="double">0.0000000000000000</Constant>
            </Apply>
        </DerivedField>
        <DerivedField name="minMaxScaler(u4)" optype="continuous" dataType="double">
            <Apply function="+">
                <Apply function="*">
                    <FieldRef field="u4"/>
                    <Constant dataType="double">1.0000000000000000</Constant>
                </Apply>
                <Constant dataType="double">0.0000000000000000</Constant>
            </Apply>
        </DerivedField>
        <DerivedField name="minMaxScaler(cat29)" optype="continuous" dataType="double">
            <Apply function="+">
                <Apply function="*">
                    <FieldRef field="cat29"/>
                    <Constant dataType="double">1.0000000000000000</Constant>
                </Apply>
                <Constant dataType="double">0.0000000000000000</Constant>
            </Apply>
        </DerivedField>
        <DerivedField name="minMaxScaler(cat98)" optype="continuous" dataType="double">
            <Apply function="+">
                <Apply function="*">
                    <FieldRef field="cat98"/>
                    <Constant dataType="double">1.0000000000000000</Constant>
                </Apply>
                <Constant dataType="double">0.0000000000000000</Constant>
            </Apply>
        </DerivedField>
        <DerivedField name="minMaxScaler(cat40)" optype="continuous" dataType="double">
            <Apply function="+">
                <Apply function="*">
                    <FieldRef field="cat40"/>
                    <Constant dataType="double">1.0000000000000000</Constant>
                </Apply>
                <Constant dataType="double">0.0000000000000000</Constant>
            </Apply>
        </DerivedField>
        <DerivedField name="minMaxScaler(cat46)" optype="continuous" dataType="double">
            <Apply function="+">
                <Apply function="*">
                    <FieldRef field="cat46"/>
                    <Constant dataType="double">1.0000000000000000</Constant>
                </Apply>
                <Constant dataType="double">0.0000000000000000</Constant>
            </Apply>
        </DerivedField>
        <DerivedField name="minMaxScaler(cat2)" optype="continuous" dataType="double">
            <Apply function="+">
                <Apply function="*">
                    <FieldRef field="cat2"/>
                    <Constant dataType="double">1.0000000000000000</Constant>
                </Apply>
                <Constant dataType="double">0.0000000000000000</Constant>
            </Apply>
        </DerivedField>
        <DerivedField name="minMaxScaler(cat41)" optype="continuous" dataType="double">
            <Apply function="+">
                <Apply function="*">
                    <FieldRef field="cat41"/>
                    <Constant dataType="double">1.0000000000000000</Constant>
                </Apply>
                <Constant dataType="double">0.0000000000000000</Constant>
            </Apply>
        </DerivedField>
        <DerivedField name="minMaxScaler(cat44)" optype="continuous" dataType="double">
            <Apply function="+">
                <Apply function="*">
                    <FieldRef field="cat44"/>
                    <Constant dataType="double">1.0000000000000000</Constant>
                </Apply>
                <Constant dataType="double">0.0000000000000000</Constant>
            </Apply>
        </DerivedField>
        <DerivedField name="minMaxScaler(cat89)" optype="continuous" dataType="double">
            <Apply function="+">
                <Apply function="*">
                    <FieldRef field="cat89"/>
                    <Constant dataType="double">1.0000000000000000</Constant>
                </Apply>
                <Constant dataType="double">0.0000000000000000</Constant>
            </Apply>
        </DerivedField>
        <DerivedField name="minMaxScaler(cat53)" optype="continuous" dataType="double">
            <Apply function="+">
                <Apply function="*">
                    <FieldRef field="cat53"/>
                    <Constant dataType="double">1.0000000000000000</Constant>
                </Apply>
                <Constant dataType="double">0.0000000000000000</Constant>
            </Apply>
        </DerivedField>
        <DerivedField name="minMaxScaler(cat23)" optype="continuous" dataType="double">
            <Apply function="+">
                <Apply function="*">
                    <FieldRef field="cat23"/>
                    <Constant dataType="double">1.0000000000000000</Constant>
                </Apply>
                <Constant dataType="double">0.0000000000000000</Constant>
            </Apply>
        </DerivedField>
        <DerivedField name="minMaxScaler(cat21)" optype="continuous" dataType="double">
            <Apply function="+">
                <Apply function="*">
                    <FieldRef field="cat21"/>
                    <Constant dataType="double">1.0000000000000000</Constant>
                </Apply>
                <Constant dataType="double">0.0000000000000000</Constant>
            </Apply>
        </DerivedField>
        <DerivedField name="minMaxScaler(cat36)" optype="continuous" dataType="double">
            <Apply function="+">
                <Apply function="*">
                    <FieldRef field="cat36"/>
                    <Constant dataType="double">1.0000000000000000</Constant>
                </Apply>
                <Constant dataType="double">0.0000000000000000</Constant>
            </Apply>
        </DerivedField>
        <DerivedField name="minMaxScaler(cat8)" optype="continuous" dataType="double">
            <Apply function="+">
                <Apply function="*">
                    <FieldRef field="cat8"/>
                    <Constant dataType="double">1.0000000000000000</Constant>
                </Apply>
                <Constant dataType="double">0.0000000000000000</Constant>
            </Apply>
        </DerivedField>
        <DerivedField name="minMaxScaler(cat20)" optype="continuous" dataType="double">
            <Apply function="+">
                <Apply function="*">
                    <FieldRef field="cat20"/>
                    <Constant dataType="double">1.0000000000000000</Constant>
                </Apply>
                <Constant dataType="double">0.0000000000000000</Constant>
            </Apply>
        </DerivedField>
        <DerivedField name="minMaxScaler(cat67)" optype="continuous" dataType="double">
            <Apply function="+">
                <Apply function="*">
                    <FieldRef field="cat67"/>
                    <Constant dataType="double">1.0000000000000000</Constant>
                </Apply>
                <Constant dataType="double">0.0000000000000000</Constant>
            </Apply>
        </DerivedField>
        <DerivedField name="minMaxScaler(cat4)" optype="continuous" dataType="double">
            <Apply function="+">
                <Apply function="*">
                    <FieldRef field="cat4"/>
                    <Constant dataType="double">1.0000000000000000</Constant>
                </Apply>
                <Constant dataType="double">0.0000000000000000</Constant>
            </Apply>
        </DerivedField>
        <DerivedField name="minMaxScaler(cat81)" optype="continuous" dataType="double">
            <Apply function="+">
                <Apply function="*">
                    <FieldRef field="cat81"/>
                    <Constant dataType="double">1.0000000000000000</Constant>
                </Apply>
                <Constant dataType="double">0.0000000000000000</Constant>
            </Apply>
        </DerivedField>
        <DerivedField name="minMaxScaler(cat84)" optype="continuous" dataType="double">
            <Apply function="+">
                <Apply function="*">
                    <FieldRef field="cat84"/>
                    <Constant dataType="double">1.0000000000000000</Constant>
                </Apply>
                <Constant dataType="double">0.0000000000000000</Constant>
            </Apply>
        </DerivedField>
        <DerivedField name="minMaxScaler(cat27)" optype="continuous" dataType="double">
            <Apply function="+">
                <Apply function="*">
                    <FieldRef field="cat27"/>
                    <Constant dataType="double">1.0000000000000000</Constant>
                </Apply>
                <Constant dataType="double">0.0000000000000000</Constant>
            </Apply>
        </DerivedField>
        <DerivedField name="minMaxScaler(cat55)" optype="continuous" dataType="double">
            <Apply function="+">
                <Apply function="*">
                    <FieldRef field="cat55"/>
                    <Constant dataType="double">1.0000000000000000</Constant>
                </Apply>
                <Constant dataType="double">0.0000000000000000</Constant>
            </Apply>
        </DerivedField>
        <DerivedField name="minMaxScaler(u9)" optype="continuous" dataType="double">
            <Apply function="+">
                <Apply function="*">
                    <FieldRef field="u9"/>
                    <Constant dataType="double">1.0000000000000000</Constant>
                </Apply>
                <Constant dataType="double">0.0000000000000000</Constant>
            </Apply>
        </DerivedField>
        <DerivedField name="minMaxScaler(cat34)" optype="continuous" dataType="double">
            <Apply function="+">
                <Apply function="*">
                    <FieldRef field="cat34"/>
                    <Constant dataType="double">1.0000000000000000</Constant>
                </Apply>
                <Constant dataType="double">0.0000000000000000</Constant>
            </Apply>
        </DerivedField>
        <DerivedField name="minMaxScaler(cat22)" optype="continuous" dataType="double">
            <Apply function="+">
                <Apply function="*">
                    <FieldRef field="cat22"/>
                    <Constant dataType="double">1.0000000000000000</Constant>
                </Apply>
                <Constant dataType="double">0.0000000000000000</Constant>
            </Apply>
        </DerivedField>
        <DerivedField name="minMaxScaler(cat71)" optype="continuous" dataType="double">
            <Apply function="+">
                <Apply function="*">
                    <FieldRef field="cat71"/>
                    <Constant dataType="double">1.0000000000000000</Constant>
                </Apply>
                <Constant dataType="double">0.0000000000000000</Constant>
            </Apply>
        </DerivedField>
        <DerivedField name="minMaxScaler(cat32)" optype="continuous" dataType="double">
            <Apply function="+">
                <Apply function="*">
                    <FieldRef field="cat32"/>
                    <Constant dataType="double">1.0000000000000000</Constant>
                </Apply>
                <Constant dataType="double">0.0000000000000000</Constant>
            </Apply>
        </DerivedField>
        <DerivedField name="minMaxScaler(cat3)" optype="continuous" dataType="double">
            <Apply function="+">
                <Apply function="*">
                    <FieldRef field="cat3"/>
                    <Constant dataType="double">1.0000000000000000</Constant>
                </Apply>
                <Constant dataType="double">0.0000000000000000</Constant>
            </Apply>
        </DerivedField>
        <DerivedField name="minMaxScaler(cat43)" optype="continuous" dataType="double">
            <Apply function="+">
                <Apply function="*">
                    <FieldRef field="cat43"/>
                    <Constant dataType="double">1.0000000000000000</Constant>
                </Apply>
                <Constant dataType="double">0.0000000000000000</Constant>
            </Apply>
        </DerivedField>
        <DerivedField name="minMaxScaler(cat52)" optype="continuous" dataType="double">
            <Apply function="+">
                <Apply function="*">
                    <FieldRef field="cat52"/>
                    <Constant dataType="double">1.0000000000000000</Constant>
                </Apply>
                <Constant dataType="double">0.0000000000000000</Constant>
            </Apply>
        </DerivedField>
        <DerivedField name="minMaxScaler(cat83)" optype="continuous" dataType="double">
            <Apply function="+">
                <Apply function="*">
                    <FieldRef field="cat83"/>
                    <Constant dataType="double">1.0000000000000000</Constant>
                </Apply>
                <Constant dataType="double">0.0000000000000000</Constant>
            </Apply>
        </DerivedField>
        <DerivedField name="minMaxScaler(cat7)" optype="continuous" dataType="double">
            <Apply function="+">
                <Apply function="*">
                    <FieldRef field="cat7"/>
                    <Constant dataType="double">1.0000000000000000</Constant>
                </Apply>
                <Constant dataType="double">0.0000000000000000</Constant>
            </Apply>
        </DerivedField>
        <DerivedField name="minMaxScaler(cat26)" optype="continuous" dataType="double">
            <Apply function="+">
                <Apply function="*">
                    <FieldRef field="cat26"/>
                    <Constant dataType="double">1.0000000000000000</Constant>
                </Apply>
                <Constant dataType="double">0.0000000000000000</Constant>
            </Apply>
        </DerivedField>
        <DerivedField name="minMaxScaler(cat15)" optype="continuous" dataType="double">
            <Apply function="+">
                <Apply function="*">
                    <FieldRef field="cat15"/>
                    <Constant dataType="double">1.0000000000000000</Constant>
                </Apply>
                <Constant dataType="double">0.0000000000000000</Constant>
            </Apply>
        </DerivedField>
        <DerivedField name="minMaxScaler(u3)" optype="continuous" dataType="double">
            <Apply function="+">
                <Apply function="*">
                    <FieldRef field="u3"/>
                    <Constant dataType="double">1.0000000000000000</Constant>
                </Apply>
                <Constant dataType="double">0.0000000000000000</Constant>
            </Apply>
        </DerivedField>
        <DerivedField name="minMaxScaler(cat70)" optype="continuous" dataType="double">
            <Apply function="+">
                <Apply function="*">
                    <FieldRef field="cat70"/>
                    <Constant dataType="double">1.0000000000000000</Constant>
                </Apply>
                <Constant dataType="double">0.0000000000000000</Constant>
            </Apply>
        </DerivedField>
        <DerivedField name="minMaxScaler(u5)" optype="continuous" dataType="double">
            <Apply function="+">
                <Apply function="*">
                    <FieldRef field="u5"/>
                    <Constant dataType="double">1.0000000000000000</Constant>
                </Apply>
                <Constant dataType="double">0.0000000000000000</Constant>
            </Apply>
        </DerivedField>
        <DerivedField name="minMaxScaler(cat24)" optype="continuous" dataType="double">
            <Apply function="+">
                <Apply function="*">
                    <FieldRef field="cat24"/>
                    <Constant dataType="double">1.0000000000000000</Constant>
                </Apply>
                <Constant dataType="double">0.0000000000000000</Constant>
            </Apply>
        </DerivedField>
        <DerivedField name="minMaxScaler(cat49)" optype="continuous" dataType="double">
            <Apply function="+">
                <Apply function="*">
                    <FieldRef field="cat49"/>
                    <Constant dataType="double">1.0000000000000000</Constant>
                </Apply>
                <Constant dataType="double">0.0000000000000000</Constant>
            </Apply>
        </DerivedField>
        <DerivedField name="minMaxScaler(cat1)" optype="continuous" dataType="double">
            <Apply function="+">
                <Apply function="*">
                    <FieldRef field="cat1"/>
                    <Constant dataType="double">1.0000000000000000</Constant>
                </Apply>
                <Constant dataType="double">0.0000000000000000</Constant>
            </Apply>
        </DerivedField>
        <DerivedField name="minMaxScaler(cat19)" optype="continuous" dataType="double">
            <Apply function="+">
                <Apply function="*">
                    <FieldRef field="cat19"/>
                    <Constant dataType="double">1.0000000000000000</Constant>
                </Apply>
                <Constant dataType="double">0.0000000000000000</Constant>
            </Apply>
        </DerivedField>
        <DerivedField name="minMaxScaler(u1)" optype="continuous" dataType="double">
            <Apply function="+">
                <Apply function="*">
                    <FieldRef field="u1"/>
                    <Constant dataType="double">1.0000000000000000</Constant>
                </Apply>
                <Constant dataType="double">0.0000000000000000</Constant>
            </Apply>
        </DerivedField>
        <DerivedField name="minMaxScaler(cat77)" optype="continuous" dataType="double">
            <Apply function="+">
                <Apply function="*">
                    <FieldRef field="cat77"/>
                    <Constant dataType="double">1.0000000000000000</Constant>
                </Apply>
                <Constant dataType="double">0.0000000000000000</Constant>
            </Apply>
        </DerivedField>
        <DerivedField name="minMaxScaler(cat72)" optype="continuous" dataType="double">
            <Apply function="+">
                <Apply function="*">
                    <FieldRef field="cat72"/>
                    <Constant dataType="double">1.0000000000000000</Constant>
                </Apply>
                <Constant dataType="double">0.0000000000000000</Constant>
            </Apply>
        </DerivedField>
        <DerivedField name="minMaxScaler(cat91)" optype="continuous" dataType="double">
            <Apply function="+">
                <Apply function="*">
                    <FieldRef field="cat91"/>
                    <Constant dataType="double">1.0000000000000000</Constant>
                </Apply>
                <Constant dataType="double">0.0000000000000000</Constant>
            </Apply>
        </DerivedField>
        <DerivedField name="minMaxScaler(cat73)" optype="continuous" dataType="double">
            <Apply function="+">
                <Apply function="*">
                    <FieldRef field="cat73"/>
                    <Constant dataType="double">1.0000000000000000</Constant>
                </Apply>
                <Constant dataType="double">0.0000000000000000</Constant>
            </Apply>
        </DerivedField>
        <DerivedField name="minMaxScaler(cat57)" optype="continuous" dataType="double">
            <Apply function="+">
                <Apply function="*">
                    <FieldRef field="cat57"/>
                    <Constant dataType="double">1.0000000000000000</Constant>
                </Apply>
                <Constant dataType="double">0.0000000000000000</Constant>
            </Apply>
        </DerivedField>
        <DerivedField name="minMaxScaler(cat87)" optype="continuous" dataType="double">
            <Apply function="+">
                <Apply function="*">
                    <FieldRef field="cat87"/>
                    <Constant dataType="double">1.0000000000000000</Constant>
                </Apply>
                <Constant dataType="double">0.0000000000000000</Constant>
            </Apply>
        </DerivedField>
        <DerivedField name="minMaxScaler(cat75)" optype="continuous" dataType="double">
            <Apply function="+">
                <Apply function="*">
                    <FieldRef field="cat75"/>
                    <Constant dataType="double">1.0000000000000000</Constant>
                </Apply>
                <Constant dataType="double">0.0000000000000000</Constant>
            </Apply>
        </DerivedField>
        <DerivedField name="minMaxScaler(cat54)" optype="continuous" dataType="double">
            <Apply function="+">
                <Apply function="*">
                    <FieldRef field="cat54"/>
                    <Constant dataType="double">1.0000000000000000</Constant>
                </Apply>
                <Constant dataType="double">0.0000000000000000</Constant>
            </Apply>
        </DerivedField>
        <DerivedField name="minMaxScaler(cat33)" optype="continuous" dataType="double">
            <Apply function="+">
                <Apply function="*">
                    <FieldRef field="cat33"/>
                    <Constant dataType="double">1.0000000000000000</Constant>
                </Apply>
                <Constant dataType="double">0.0000000000000000</Constant>
            </Apply>
        </DerivedField>
        <DerivedField name="minMaxScaler(cat61)" optype="continuous" dataType="double">
            <Apply function="+">
                <Apply function="*">
                    <FieldRef field="cat61"/>
                    <Constant dataType="double">1.0000000000000000</Constant>
                </Apply>
                <Constant dataType="double">0.0000000000000000</Constant>
            </Apply>
        </DerivedField>
        <DerivedField name="minMaxScaler(cat59)" optype="continuous" dataType="double">
            <Apply function="+">
                <Apply function="*">
                    <FieldRef field="cat59"/>
                    <Constant dataType="double">1.0000000000000000</Constant>
                </Apply>
                <Constant dataType="double">0.0000000000000000</Constant>
            </Apply>
        </DerivedField>
        <DerivedField name="minMaxScaler(cat63)" optype="continuous" dataType="double">
            <Apply function="+">
                <Apply function="*">
                    <FieldRef field="cat63"/>
                    <Constant dataType="double">1.0000000000000000</Constant>
                </Apply>
                <Constant dataType="double">0.0000000000000000</Constant>
            </Apply>
        </DerivedField>
        <DerivedField name="minMaxScaler(cat9)" optype="continuous" dataType="double">
            <Apply function="+">
                <Apply function="*">
                    <FieldRef field="cat9"/>
                    <Constant dataType="double">1.0000000000000000</Constant>
                </Apply>
                <Constant dataType="double">0.0000000000000000</Constant>
            </Apply>
        </DerivedField>
        <DerivedField name="minMaxScaler(cat99)" optype="continuous" dataType="double">
            <Apply function="+">
                <Apply function="*">
                    <FieldRef field="cat99"/>
                    <Constant dataType="double">1.0000000000000000</Constant>
                </Apply>
                <Constant dataType="double">0.0000000000000000</Constant>
            </Apply>
        </DerivedField>
        <DerivedField name="minMaxScaler(cat76)" optype="continuous" dataType="double">
            <Apply function="+">
                <Apply function="*">
                    <FieldRef field="cat76"/>
                    <Constant dataType="double">1.0000000000000000</Constant>
                </Apply>
                <Constant dataType="double">0.0000000000000000</Constant>
            </Apply>
        </DerivedField>
        <DerivedField name="minMaxScaler(cat95)" optype="continuous" dataType="double">
            <Apply function="+">
                <Apply function="*">
                    <FieldRef field="cat95"/>
                    <Constant dataType="double">1.0000000000000000</Constant>
                </Apply>
                <Constant dataType="double">0.0000000000000000</Constant>
            </Apply>
        </DerivedField>
        <DerivedField name="minMaxScaler(u0)" optype="continuous" dataType="double">
            <Apply function="+">
                <Apply function="*">
                    <FieldRef field="u0"/>
                    <Constant dataType="double">1.0000000000000000</Constant>
                </Apply>
                <Constant dataType="double">0.0000000000000000</Constant>
            </Apply>
        </DerivedField>
        <DerivedField name="minMaxScaler(cat86)" optype="continuous" dataType="double">
            <Apply function="+">
                <Apply function="*">
                    <FieldRef field="cat86"/>
                    <Constant dataType="double">1.0000000000000000</Constant>
                </Apply>
                <Constant dataType="double">0.0000000000000000</Constant>
            </Apply>
        </DerivedField>
        <DerivedField name="minMaxScaler(cat97)" optype="continuous" dataType="double">
            <Apply function="+">
                <Apply function="*">
                    <FieldRef field="cat97"/>
                    <Constant dataType="double">1.0000000000000000</Constant>
                </Apply>
                <Constant dataType="double">0.0000000000000000</Constant>
            </Apply>
        </DerivedField>
        <DerivedField name="minMaxScaler(cat58)" optype="continuous" dataType="double">
            <Apply function="+">
                <Apply function="*">
                    <FieldRef field="cat58"/>
                    <Constant dataType="double">1.0000000000000000</Constant>
                </Apply>
                <Constant dataType="double">0.0000000000000000</Constant>
            </Apply>
        </DerivedField>
        <DerivedField name="minMaxScaler(cat69)" optype="continuous" dataType="double">
            <Apply function="+">
                <Apply function="*">
                    <FieldRef field="cat69"/>
                    <Constant dataType="double">1.0000000000000000</Constant>
                </Apply>
                <Constant dataType="double">0.0000000000000000</Constant>
            </Apply>
        </DerivedField>
        <DerivedField name="minMaxScaler(cat88)" optype="continuous" dataType="double">
            <Apply function="+">
                <Apply function="*">
                    <FieldRef field="cat88"/>
                    <Constant dataType="double">1.0000000000000000</Constant>
                </Apply>
                <Constant dataType="double">0.0000000000000000</Constant>
            </Apply>
        </DerivedField>
        <DerivedField name="minMaxScaler(cat0)" optype="continuous" dataType="double">
            <Apply function="+">
                <Apply function="*">
                    <FieldRef field="cat0"/>
                    <Constant dataType="double">1.0000000000000000</Constant>
                </Apply>
                <Constant dataType="double">0.0000000000000000</Constant>
            </Apply>
        </DerivedField>
        <DerivedField name="minMaxScaler(cat56)" optype="continuous" dataType="double">
            <Apply function="+">
                <Apply function="*">
                    <FieldRef field="cat56"/>
                    <Constant dataType="double">1.0000000000000000</Constant>
                </Apply>
                <Constant dataType="double">0.0000000000000000</Constant>
            </Apply>
        </DerivedField>
        <DerivedField name="minMaxScaler(u2)" optype="continuous" dataType="double">
            <Apply function="+">
                <Apply function="*">
                    <FieldRef field="u2"/>
                    <Constant dataType="double">1.0000000000000000</Constant>
                </Apply>
                <Constant dataType="double">0.0000000000000000</Constant>
            </Apply>
        </DerivedField>
        <DerivedField name="minMaxScaler(cat85)" optype="continuous" dataType="double">
            <Apply function="+">
                <Apply function="*">
                    <FieldRef field="cat85"/>
                    <Constant dataType="double">1.0000000000000000</Constant>
                </Apply>
                <Constant dataType="double">0.0000000000000000</Constant>
            </Apply>
        </DerivedField>
        <DerivedField name="minMaxScaler(cat25)" optype="continuous" dataType="double">
            <Apply function="+">
                <Apply function="*">
                    <FieldRef field="cat25"/>
                    <Constant dataType="double">1.0000000000000000</Constant>
                </Apply>
                <Constant dataType="double">0.0000000000000000</Constant>
            </Apply>
        </DerivedField>
        <DerivedField name="minMaxScaler(cat94)" optype="continuous" dataType="double">
            <Apply function="+">
                <Apply function="*">
                    <FieldRef field="cat94"/>
                    <Constant dataType="double">1.0000000000000000</Constant>
                </Apply>
                <Constant dataType="double">0.0000000000000000</Constant>
            </Apply>
        </DerivedField>
        <DerivedField name="minMaxScaler(u6)" optype="continuous" dataType="double">
            <Apply function="+">
                <Apply function="*">
                    <FieldRef field="u6"/>
                    <Constant dataType="double">1.0000000000000000</Constant>
                </Apply>
                <Constant dataType="double">0.0000000000000000</Constant>
            </Apply>
        </DerivedField>
        <DerivedField name="minMaxScaler(cat47)" optype="continuous" dataType="double">
            <Apply function="+">
                <Apply function="*">
                    <FieldRef field="cat47"/>
                    <Constant dataType="double">1.0000000000000000</Constant>
                </Apply>
                <Constant dataType="double">0.0000000000000000</Constant>
            </Apply>
        </DerivedField>
        <DerivedField name="minMaxScaler(cat51)" optype="continuous" dataType="double">
            <Apply function="+">
                <Apply function="*">
                    <FieldRef field="cat51"/>
                    <Constant dataType="double">1.0000000000000000</Constant>
                </Apply>
                <Constant dataType="double">0.0000000000000000</Constant>
            </Apply>
        </DerivedField>
        <DerivedField name="minMaxScaler(cat80)" optype="continuous" dataType="double">
            <Apply function="+">
                <Apply function="*">
                    <FieldRef field="cat80"/>
                    <Constant dataType="double">1.0000000000000000</Constant>
                </Apply>
                <Constant dataType="double">0.0000000000000000</Constant>
            </Apply>
        </DerivedField>
        <DerivedField name="minMaxScaler(cat93)" optype="continuous" dataType="double">
            <Apply function="+">
                <Apply function="*">
                    <FieldRef field="cat93"/>
                    <Constant dataType="double">1.0000000000000000</Constant>
                </Apply>
                <Constant dataType="double">0.0000000000000000</Constant>
            </Apply>
        </DerivedField>
        <DerivedField name="minMaxScaler(cat5)" optype="continuous" dataType="double">
            <Apply function="+">
                <Apply function="*">
                    <FieldRef field="cat5"/>
                    <Constant dataType="double">1.0000000000000000</Constant>
                </Apply>
                <Constant dataType="double">0.0000000000000000</Constant>
            </Apply>
        </DerivedField>
        <DerivedField name="minMaxScaler(cat18)" optype="continuous" dataType="double">
            <Apply function="+">
                <Apply function="*">
                    <FieldRef field="cat18"/>
                    <Constant dataType="double">1.0000000000000000</Constant>
                </Apply>
                <Constant dataType="double">0.0000000000000000</Constant>
            </Apply>
        </DerivedField>
        <DerivedField name="minMaxScaler(cat79)" optype="continuous" dataType="double">
            <Apply function="+">
                <Apply function="*">
                    <FieldRef field="cat79"/>
                    <Constant dataType="double">1.0000000000000000</Constant>
                </Apply>
                <Constant dataType="double">0.0000000000000000</Constant>
            </Apply>
        </DerivedField>
        <DerivedField name="minMaxScaler(cat48)" optype="continuous" dataType="double">
            <Apply function="+">
                <Apply function="*">
                    <FieldRef field="cat48"/>
                    <Constant dataType="double">1.0000000000000000</Constant>
                </Apply>
                <Constant dataType="double">0.0000000000000000</Constant>
            </Apply>
        </DerivedField>
        <DerivedField name="minMaxScaler(cat78)" optype="continuous" dataType="double">
            <Apply function="+">
                <Apply function="*">
                    <FieldRef field="cat78"/>
                    <Constant dataType="double">1.0000000000000000</Constant>
                </Apply>
                <Constant dataType="double">0.0000000000000000</Constant>
            </Apply>
        </DerivedField>
        <DerivedField name="minMaxScaler(cat65)" optype="continuous" dataType="double">
            <Apply function="+">
                <Apply function="*">
                    <FieldRef field="cat65"/>
                    <Constant dataType="double">1.0000000000000000</Constant>
                </Apply>
                <Constant dataType="double">0.0000000000000000</Constant>
            </Apply>
        </DerivedField>
        <DerivedField name="minMaxScaler(cat14)" optype="continuous" dataType="double">
            <Apply function="+">
                <Apply function="*">
                    <FieldRef field="cat14"/>
                    <Constant dataType="double">1.0000000000000000</Constant>
                </Apply>
                <Constant dataType="double">0.0000000000000000</Constant>
            </Apply>
        </DerivedField>
        <DerivedField name="minMaxScaler(cat50)" optype="continuous" dataType="double">
            <Apply function="+">
                <Apply function="*">
                    <FieldRef field="cat50"/>
                    <Constant dataType="double">1.0000000000000000</Constant>
                </Apply>
                <Constant dataType="double">0.0000000000000000</Constant>
            </Apply>
        </DerivedField>
        <DerivedField name="minMaxScaler(cat30)" optype="continuous" dataType="double">
            <Apply function="+">
                <Apply function="*">
                    <FieldRef field="cat30"/>
                    <Constant dataType="double">1.0000000000000000</Constant>
                </Apply>
                <Constant dataType="double">0.0000000000000000</Constant>
            </Apply>
        </DerivedField>
        <DerivedField name="minMaxScaler(cat31)" optype="continuous" dataType="double">
            <Apply function="+">
                <Apply function="*">
                    <FieldRef field="cat31"/>
                    <Constant dataType="double">1.0000000000000000</Constant>
                </Apply>
                <Constant dataType="double">0.0000000000000000</Constant>
            </Apply>
        </DerivedField>
        <DerivedField name="minMaxScaler(cat92)" optype="continuous" dataType="double">
            <Apply function="+">
                <Apply function="*">
                    <FieldRef field="cat92"/>
                    <Constant dataType="double">1.0000000000000000</Constant>
                </Apply>
                <Constant dataType="double">0.0000000000000000</Constant>
            </Apply>
        </DerivedField>
        <DerivedField name="minMaxScaler(cat28)" optype="continuous" dataType="double">
            <Apply function="+">
                <Apply function="*">
                    <FieldRef field="cat28"/>
                    <Constant dataType="double">1.0000000000000000</Constant>
                </Apply>
                <Constant dataType="double">0.0000000000000000</Constant>
            </Apply>
        </DerivedField>
        <DerivedField name="minMaxScaler(cat38)" optype="continuous" dataType="double">
            <Apply function="+">
                <Apply function="*">
                    <FieldRef field="cat38"/>
                    <Constant dataType="double">1.0000000000000000</Constant>
                </Apply>
                <Constant dataType="double">0.0000000000000000</Constant>
            </Apply>
        </DerivedField>
        <DerivedField name="minMaxScaler(cat64)" optype="continuous" dataType="double">
            <Apply function="+">
                <Apply function="*">
                    <FieldRef field="cat64"/>
                    <Constant dataType="double">1.0000000000000000</Constant>
                </Apply>
                <Constant dataType="double">0.0000000000000000</Constant>
            </Apply>
        </DerivedField>
        <DerivedField name="minMaxScaler(cat62)" optype="continuous" dataType="double">
            <Apply function="+">
                <Apply function="*">
                    <FieldRef field="cat62"/>
                    <Constant dataType="double">1.0000000000000000</Constant>
                </Apply>
                <Constant dataType="double">0.0000000000000000</Constant>
            </Apply>
        </DerivedField>
        <DerivedField name="minMaxScaler(cat6)" optype="continuous" dataType="double">
            <Apply function="+">
                <Apply function="*">
                    <FieldRef field="cat6"/>
                    <Constant dataType="double">1.0000000000000000</Constant>
                </Apply>
                <Constant dataType="double">0.0000000000000000</Constant>
            </Apply>
        </DerivedField>
        <DerivedField name="minMaxScaler(cat39)" optype="continuous" dataType="double">
            <Apply function="+">
                <Apply function="*">
                    <FieldRef field="cat39"/>
                    <Constant dataType="double">1.0000000000000000</Constant>
                </Apply>
                <Constant dataType="double">0.0000000000000000</Constant>
            </Apply>
        </DerivedField>
        <DerivedField name="minMaxScaler(cat45)" optype="continuous" dataType="double">
            <Apply function="+">
                <Apply function="*">
                    <FieldRef field="cat45"/>
                    <Constant dataType="double">1.0000000000000000</Constant>
                </Apply>
                <Constant dataType="double">0.0000000000000000</Constant>
            </Apply>
        </DerivedField>
        <DerivedField name="minMaxScaler(cat66)" optype="continuous" dataType="double">
            <Apply function="+">
                <Apply function="*">
                    <FieldRef field="cat66"/>
                    <Constant dataType="double">1.0000000000000000</Constant>
                </Apply>
                <Constant dataType="double">0.0000000000000000</Constant>
            </Apply>
        </DerivedField>
        <DerivedField name="minMaxScaler(cat12)" optype="continuous" dataType="double">
            <Apply function="+">
                <Apply function="*">
                    <FieldRef field="cat12"/>
                    <Constant dataType="double">1.0000000000000000</Constant>
                </Apply>
                <Constant dataType="double">0.0000000000000000</Constant>
            </Apply>
        </DerivedField>
        <DerivedField name="minMaxScaler(cat82)" optype="continuous" dataType="double">
            <Apply function="+">
                <Apply function="*">
                    <FieldRef field="cat82"/>
                    <Constant dataType="double">1.0000000000000000</Constant>
                </Apply>
                <Constant dataType="double">0.0000000000000000</Constant>
            </Apply>
        </DerivedField>
        <DerivedField name="minMaxScaler(u7)" optype="continuous" dataType="double">
            <Apply function="+">
                <Apply function="*">
                    <FieldRef field="u7"/>
                    <Constant dataType="double">1.0000000000000000</Constant>
                </Apply>
                <Constant dataType="double">0.0000000000000000</Constant>
            </Apply>
        </DerivedField>
        <DerivedField name="minMaxScaler(u8)" optype="continuous" dataType="double">
            <Apply function="+">
                <Apply function="*">
                    <FieldRef field="u8"/>
                    <Constant dataType="double">1.0000000000000000</Constant>
                </Apply>
                <Constant dataType="double">0.0000000000000000</Constant>
            </Apply>
        </DerivedField>
        <DerivedField name="minMaxScaler(cat90)" optype="continuous" dataType="double">
            <Apply function="+">
                <Apply function="*">
                    <FieldRef field="cat90"/>
                    <Constant dataType="double">1.0000000000000000</Constant>
                </Apply>
                <Constant dataType="double">0.0000000000000000</Constant>
            </Apply>
        </DerivedField>
    </TransformationDictionary>
    <NeuralNetwork modelName="MLPClassifier" functionName="classification" activationFunction="tanh" threshold="0" altitude="1.0">
        <MiningSchema>
            <MiningField name="age" usageType="active" optype="continuous"/>
            <MiningField name="woman" usageType="active" optype="continuous"/>
            <MiningField name="cat17" usageType="active" optype="continuous"/>
            <MiningField name="cat74" usageType="active" optype="continuous"/>
            <MiningField name="cat42" usageType="active" optype="continuous"/>
            <MiningField name="cat96" usageType="active" optype="continuous"/>
            <MiningField name="cat13" usageType="active" optype="continuous"/>
            <MiningField name="cat16" usageType="active" optype="continuous"/>
            <MiningField name="cat11" usageType="active" optype="continuous"/>
            <MiningField name="cat35" usageType="active" optype="continuous"/>
            <MiningField name="cat60" usageType="active" optype="continuous"/>
            <MiningField name="cat68" usageType="active" optype="continuous"/>
            <MiningField name="cat10" usageType="active" optype="continuous"/>
            <MiningField name="cat37" usageType="active" optype="continuous"/>
            <MiningField name="u4" usageType="active" optype="continuous"/>
            <MiningField name="cat29" usageType="active" optype="continuous"/>
            <MiningField name="cat98" usageType="active" optype="continuous"/>
            <MiningField name="cat40" usageType="active" optype="continuous"/>
            <MiningField name="cat46" usageType="active" optype="continuous"/>
            <MiningField name="cat2" usageType="active" optype="continuous"/>
            <MiningField name="cat41" usageType="active" optype="continuous"/>
            <MiningField name="cat44" usageType="active" optype="continuous"/>
            <MiningField name="cat89" usageType="active" optype="continuous"/>
            <MiningField name="cat53" usageType="active" optype="continuous"/>
            <MiningField name="cat23" usageType="active" optype="continuous"/>
            <MiningField name="cat21" usageType="active" optype="continuous"/>
            <MiningField name="cat36" usageType="active" optype="continuous"/>
            <MiningField name="cat8" usageType="active" optype="continuous"/>
            <MiningField name="cat20" usageType="active" optype="continuous"/>
            <MiningField name="cat67" usageType="active" optype="continuous"/>
            <MiningField name="cat4" usageType="active" optype="continuous"/>
            <MiningField name="cat81" usageType="active" optype="continuous"/>
            <MiningField name="cat84" usageType="active" optype="continuous"/>
            <MiningField name="cat27" usageType="active" optype="continuous"/>
            <MiningField name="cat55" usageType="active" optype="continuous"/>
            <MiningField name="u9" usageType="active" optype="continuous"/>
            <MiningField name="cat34" usageType="active" optype="continuous"/>
            <MiningField name="cat22" usageType="active" optype="continuous"/>
            <MiningField name="cat71" usageType="active" optype="continuous"/>
            <MiningField name="cat32" usageType="active" optype="continuous"/>
            <MiningField name="cat3" usageType="active" optype="continuous"/>
            <MiningField name="cat43" usageType="active" optype="continuous"/>
            <MiningField name="cat52" usageType="active" optype="continuous"/>
            <MiningField name="cat83" usageType="active" optype="continuous"/>
            <MiningField name="cat7" usageType="active" optype="continuous"/>
            <MiningField name="cat26" usageType="active" optype="continuous"/>
            <MiningField name="cat15" usageType="active" optype="continuous"/>
            <MiningField name="u3" usageType="active" optype="continuous"/>
            <MiningField name="cat70" usageType="active" optype="continuous"/>
            <MiningField name="u5" usageType="active" optype="continuous"/>
            <MiningField name="cat24" usageType="active" optype="continuous"/>
            <MiningField name="cat49" usageType="active" optype="continuous"/>
            <MiningField name="cat1" usageType="active" optype="continuous"/>
            <MiningField name="cat19" usageType="active" optype="continuous"/>
            <MiningField name="u1" usageType="active" optype="continuous"/>
            <MiningField name="cat77" usageType="active" optype="continuous"/>
            <MiningField name="cat72" usageType="active" optype="continuous"/>
            <MiningField name="cat91" usageType="active" optype="continuous"/>
            <MiningField name="cat73" usageType="active" optype="continuous"/>
            <MiningField name="cat57" usageType="active" optype="continuous"/>
            <MiningField name="cat87" usageType="active" optype="continuous"/>
            <MiningField name="cat75" usageType="active" optype="continuous"/>
            <MiningField name="cat54" usageType="active" optype="continuous"/>
            <MiningField name="cat33" usageType="active" optype="continuous"/>
            <MiningField name="cat61" usageType="active" optype="continuous"/>
            <MiningField name="cat59" usageType="active" optype="continuous"/>
            <MiningField name="cat63" usageType="active" optype="continuous"/>
            <MiningField name="cat9" usageType="active" optype="continuous"/>
            <MiningField name="cat99" usageType="active" optype="continuous"/>
            <MiningField name="cat76" usageType="active" optype="continuous"/>
            <MiningField name="cat95" usageType="active" optype="continuous"/>
            <MiningField name="u0" usageType="active" optype="continuous"/>
            <MiningField name="cat86" usageType="active" optype="continuous"/>
            <MiningField name="cat97" usageType="active" optype="continuous"/>
            <MiningField name="cat58" usageType="active" optype="continuous"/>
            <MiningField name="cat69" usageType="active" optype="continuous"/>
            <MiningField name="cat88" usageType="active" optype="continuous"/>
            <MiningField name="cat0" usageType="active" optype="continuous"/>
            <MiningField name="cat56" usageType="active" optype="continuous"/>
            <MiningField name="u2" usageType="active" optype="continuous"/>
            <MiningField name="cat85" usageType="active" optype="continuous"/>
            <MiningField name="cat25" usageType="active" optype="continuous"/>
            <MiningField name="cat94" usageType="active" optype="continuous"/>
            <MiningField name="u6" usageType="active" optype="continuous"/>
            <MiningField name="cat47" usageType="active" optype="continuous"/>
            <MiningField name="cat51" usageType="active" optype="continuous"/>
            <MiningField name="cat80" usageType="active" optype="continuous"/>
            <MiningField name="cat93" usageType="active" optype="continuous"/>
            <MiningField name="cat5" usageType="active" optype="continuous"/>
            <MiningField name="cat18" usageType="active" optype="continuous"/>
            <MiningField name="cat79" usageType="active" optype="continuous"/>
            <MiningField name="cat48" usageType="active" optype="continuous"/>
            <MiningField name="cat78" usageType="active" optype="continuous"/>
            <MiningField name="cat65" usageType="active" optype="continuous"/>
            <MiningField name="cat14" usageType="active" optype="continuous"/>
            <MiningField name="cat50" usageType="active" optype="continuous"/>
            <MiningField name="cat30" usageType="active" optype="continuous"/>
            <MiningField name="cat31" usageType="active" optype="continuous"/>
            <MiningField name="cat92" usageType="active" optype="continuous"/>
            <MiningField name="cat28" usageType="active" optype="continuous"/>
            <MiningField name="cat38" usageType="active" optype="continuous"/>
            <MiningField name="cat64" usageType="active" optype="continuous"/>
            <MiningField name="cat62" usageType="active" optype="continuous"/>
            <MiningField name="cat6" usageType="active" optype="continuous"/>
            <MiningField name="cat39" usageType="active" optype="continuous"/>
            <MiningField name="cat45" usageType="active" optype="continuous"/>
            <MiningField name="cat66" usageType="active" optype="continuous"/>
            <MiningField name="cat12" usageType="active" optype="continuous"/>
            <MiningField name="cat82" usageType="active" optype="continuous"/>
            <MiningField name="u7" usageType="active" optype="continuous"/>
            <MiningField name="u8" usageType="active" optype="continuous"/>
            <MiningField name="cat90" usageType="active" optype="continuous"/>
            <MiningField name="label" usageType="target" optype="categorical"/>
        </MiningSchema>
        <Output>
            <OutputField name="probability_0" optype="continuous" dataType="double" feature="probability" value="0"/>
            <OutputField name="probability_1" optype="continuous" dataType="double" feature="probability" value="1"/>
            <OutputField name="predicted_label" optype="categorical" dataType="integer" feature="predictedValue"/>
        </Output>
        <NeuralInputs numberOfInputs="112">
            <NeuralInput id="minMaxScaler(age)">
                <DerivedField optype="continuous" dataType="double">
                    <FieldRef field="minMaxScaler(age)"/>
                </DerivedField>
            </NeuralInput>
            <NeuralInput id="minMaxScaler(woman)">
                <DerivedField optype="continuous" dataType="double">
                    <FieldRef field="minMaxScaler(woman)"/>
                </DerivedField>
            </NeuralInput>
            <NeuralInput id="minMaxScaler(cat17)">
                <DerivedField optype="continuous" dataType="double">
                    <FieldRef field="minMaxScaler(cat17)"/>
                </DerivedField>
            </NeuralInput>
            <NeuralInput id="minMaxScaler(cat74)">
                <DerivedField optype="continuous" dataType="double">
                    <FieldRef field="minMaxScaler(cat74)"/>
                </DerivedField>
            </NeuralInput>
            <NeuralInput id="minMaxScaler(cat42)">
                <DerivedField optype="continuous" dataType="double">
                    <FieldRef field="minMaxScaler(cat42)"/>
                </DerivedField>
            </NeuralInput>
            <NeuralInput id="minMaxScaler(cat96)">
                <DerivedField optype="continuous" dataType="double">
                    <FieldRef field="minMaxScaler(cat96)"/>
                </DerivedField>
            </NeuralInput>
            <NeuralInput id="minMaxScaler(cat13)">
                <DerivedField optype="continuous" dataType="double">
                    <FieldRef field="minMaxScaler(cat13)"/>
                </DerivedField>
            </NeuralInput>
            <NeuralInput id="minMaxScaler(cat16)">
                <DerivedField optype="continuous" dataType="double">
                    <FieldRef field="minMaxScaler(cat16)"/>
                </DerivedField>
            </NeuralInput>
            <NeuralInput id="minMaxScaler(cat11)">
                <DerivedField optype="continuous" dataType="double">
                    <FieldRef field="minMaxScaler(cat11)"/>
                </DerivedField>
            </NeuralInput>
            <NeuralInput id="minMaxScaler(cat35)">
                <DerivedField optype="continuous" dataType="double">
                    <FieldRef field="minMaxScaler(cat35)"/>
                </DerivedField>
            </NeuralInput>
            <NeuralInput id="minMaxScaler(cat60)">
                <DerivedField optype="continuous" dataType="double">
                    <FieldRef field="minMaxScaler(cat60)"/>
                </DerivedField>
            </NeuralInput>
            <NeuralInput id="minMaxScaler(cat68)">
                <DerivedField optype="continuous" dataType="double">
                    <FieldRef field="minMaxScaler(cat68)"/>
                </DerivedField>
            </NeuralInput>
            <NeuralInput id="minMaxScaler(cat10)">
                <DerivedField optype="continuous" dataType="double">
                    <FieldRef field="minMaxScaler(cat10)"/>
                </DerivedField>
            </NeuralInput>
            <NeuralInput id="minMaxScaler(cat37)">
                <DerivedField optype="continuous" dataType="double">
                    <FieldRef field="minMaxScaler(cat37)"/>
                </DerivedField>
            </NeuralInput>
            <NeuralInput id="minMaxScaler(u4)">
                <DerivedField optype="continuous" dataType="double">
                    <FieldRef field="minMaxScaler(u4)"/>
                </DerivedField>
            </NeuralInput>
            <NeuralInput id="minMaxScaler(cat29)">
                <DerivedField optype="continuous" dataType="double">
                    <FieldRef field="minMaxScaler(cat29)"/>
                </DerivedField>
            </NeuralInput>
            <NeuralInput id="minMaxScaler(cat98)">
                <DerivedField optype="continuous" dataType="double">
                    <FieldRef field="minMaxScaler(cat98)"/>
                </DerivedField>
            </NeuralInput>
            <NeuralInput id="minMaxScaler(cat40)">
                <DerivedField optype="continuous" dataType="double">
                    <FieldRef field="minMaxScaler(cat40)"/>
                </DerivedField>
            </NeuralInput>
            <NeuralInput id="minMaxScaler(cat46)">
                <DerivedField optype="continuous" dataType="double">
                    <FieldRef field="minMaxScaler(cat46)"/>
                </DerivedField>
            </NeuralInput>
            <NeuralInput id="minMaxScaler(cat2)">
                <DerivedField optype="continuous" dataType="double">
                    <FieldRef field="minMaxScaler(cat2)"/>
                </DerivedField>
            </NeuralInput>
            <NeuralInput id="minMaxScaler(cat41)">
                <DerivedField optype="continuous" dataType="double">
                    <FieldRef field="minMaxScaler(cat41)"/>
                </DerivedField>
            </NeuralInput>
            <NeuralInput id="minMaxScaler(cat44)">
                <DerivedField optype="continuous" dataType="double">
                    <FieldRef field="minMaxScaler(cat44)"/>
                </DerivedField>
            </NeuralInput>
            <NeuralInput id="minMaxScaler(cat89)">
                <DerivedField optype="continuous" dataType="double">
                    <FieldRef field="minMaxScaler(cat89)"/>
                </DerivedField>
            </NeuralInput>
            <NeuralInput id="minMaxScaler(cat53)">
                <DerivedField optype="continuous" dataType="double">
                    <FieldRef field="minMaxScaler(cat53)"/>
                </DerivedField>
            </NeuralInput>
            <NeuralInput id="minMaxScaler(cat23)">
                <DerivedField optype="continuous" dataType="double">
                    <FieldRef field="minMaxScaler(cat23)"/>
                </DerivedField>
            </NeuralInput>
            <NeuralInput id="minMaxScaler(cat21)">
                <DerivedField optype="continuous" dataType="double">
                    <FieldRef field="minMaxScaler(cat21)"/>
                </DerivedField>
            </NeuralInput>
            <NeuralInput id="minMaxScaler(cat36)">
                <DerivedField optype="continuous" dataType="double">
                    <FieldRef field="minMaxScaler(cat36)"/>
                </DerivedField>
            </NeuralInput>
            <NeuralInput id="minMaxScaler(cat8)">
                <DerivedField optype="continuous" dataType="double">
                    <FieldRef field="minMaxScaler(cat8)"/>
                </DerivedField>
            </NeuralInput>
            <NeuralInput id="minMaxScaler(cat20)">
                <DerivedField optype="continuous" dataType="double">
                    <FieldRef field="minMaxScaler(cat20)"/>
                </DerivedField>
            </NeuralInput>
            <NeuralInput id="minMaxScaler(cat67)">
                <DerivedField optype="continuous" dataType="double">
                    <FieldRef field="minMaxScaler(cat67)"/>
                </DerivedField>
            </NeuralInput>
            <NeuralInput id="minMaxScaler(cat4)">
                <DerivedField optype="continuous" dataType="double">
                    <FieldRef field="minMaxScaler(cat4)"/>
                </DerivedField>
            </NeuralInput>
            <NeuralInput id="minMaxScaler(cat81)">
                <DerivedField optype="continuous" dataType="double">
                    <FieldRef field="minMaxScaler(cat81)"/>
                </DerivedField>
            </NeuralInput>
            <NeuralInput id="minMaxScaler(cat84)">
                <DerivedField optype="continuous" dataType="double">
                    <FieldRef field="minMaxScaler(cat84)"/>
                </DerivedField>
            </NeuralInput>
            <NeuralInput id="minMaxScaler(cat27)">
                <DerivedField optype="continuous" dataType="double">
                    <FieldRef field="minMaxScaler(cat27)"/>
                </DerivedField>
            </NeuralInput>
            <NeuralInput id="minMaxScaler(cat55)">
                <DerivedField optype="continuous" dataType="double">
                    <FieldRef field="minMaxScaler(cat55)"/>
                </DerivedField>
            </NeuralInput>
            <NeuralInput id="minMaxScaler(u9)">
                <DerivedField optype="continuous" dataType="double">
                    <FieldRef field="minMaxScaler(u9)"/>
                </DerivedField>
            </NeuralInput>
            <NeuralInput id="minMaxScaler(cat34)">
                <DerivedField optype="continuous" dataType="double">
                    <FieldRef field="minMaxScaler(cat34)"/>
                </DerivedField>
            </NeuralInput>
            <NeuralInput id="minMaxScaler(cat22)">
                <DerivedField optype="continuous" dataType="double">
                    <FieldRef field="minMaxScaler(cat22)"/>
                </DerivedField>
            </NeuralInput>
            <NeuralInput id="minMaxScaler(cat71)">
                <DerivedField optype="continuous" dataType="double">
                    <FieldRef field="minMaxScaler(cat71)"/>
                </DerivedField>
            </NeuralInput>
            <NeuralInput id="minMaxScaler(cat32)">
                <DerivedField optype="continuous" dataType="double">
                    <FieldRef field="minMaxScaler(cat32)"/>
                </DerivedField>
            </NeuralInput>
            <NeuralInput id="minMaxScaler(cat3)">
                <DerivedField optype="continuous" dataType="double">
                    <FieldRef field="minMaxScaler(cat3)"/>
                </DerivedField>
            </NeuralInput>
            <NeuralInput id="minMaxScaler(cat43)">
                <DerivedField optype="continuous" dataType="double">
                    <FieldRef field="minMaxScaler(cat43)"/>
                </DerivedField>
            </NeuralInput>
            <NeuralInput id="minMaxScaler(cat52)">
                <DerivedField optype="continuous" dataType="double">
                    <FieldRef field="minMaxScaler(cat52)"/>
                </DerivedField>
            </NeuralInput>
            <NeuralInput id="minMaxScaler(cat83)">
                <DerivedField optype="continuous" dataType="double">
                    <FieldRef field="minMaxScaler(cat83)"/>
                </DerivedField>
            </NeuralInput>
            <NeuralInput id="minMaxScaler(cat7)">
                <DerivedField optype="continuous" dataType="double">
                    <FieldRef field="minMaxScaler(cat7)"/>
                </DerivedField>
            </NeuralInput>
            <NeuralInput id="minMaxScaler(cat26)">
                <DerivedField optype="continuous" dataType="double">
                    <FieldRef field="minMaxScaler(cat26)"/>
                </DerivedField>
            </NeuralInput>
            <NeuralInput id="minMaxScaler(cat15)">
                <DerivedField optype="continuous" dataType="double">
                    <FieldRef field="minMaxScaler(cat15)"/>
                </DerivedField>
            </NeuralInput>
            <NeuralInput id="minMaxScaler(u3)">
                <DerivedField optype="continuous" dataType="double">
                    <FieldRef field="minMaxScaler(u3)"/>
                </DerivedField>
            </NeuralInput>
            <NeuralInput id="minMaxScaler(cat70)">
                <DerivedField optype="continuous" dataType="double">
                    <FieldRef field="minMaxScaler(cat70)"/>
                </DerivedField>
            </NeuralInput>
            <NeuralInput id="minMaxScaler(u5)">
                <DerivedField optype="continuous" dataType="double">
                    <FieldRef field="minMaxScaler(u5)"/>
                </DerivedField>
            </NeuralInput>
            <NeuralInput id="minMaxScaler(cat24)">
                <DerivedField optype="continuous" dataType="double">
                    <FieldRef field="minMaxScaler(cat24)"/>
                </DerivedField>
            </NeuralInput>
            <NeuralInput id="minMaxScaler(cat49)">
                <DerivedField optype="continuous" dataType="double">
                    <FieldRef field="minMaxScaler(cat49)"/>
                </DerivedField>
            </NeuralInput>
            <NeuralInput id="minMaxScaler(cat1)">
                <DerivedField optype="continuous" dataType="double">
                    <FieldRef field="minMaxScaler(cat1)"/>
                </DerivedField>
            </NeuralInput>
            <NeuralInput id="minMaxScaler(cat19)">
                <DerivedField optype="continuous" dataType="double">
                    <FieldRef field="minMaxScaler(cat19)"/>
                </DerivedField>
            </NeuralInput>
            <NeuralInput id="minMaxScaler(u1)">
                <DerivedField optype="continuous" dataType="double">
                    <FieldRef field="minMaxScaler(u1)"/>
                </DerivedField>
            </NeuralInput>
            <NeuralInput id="minMaxScaler(cat77)">
                <DerivedField optype="continuous" dataType="double">
                    <FieldRef field="minMaxScaler(cat77)"/>
                </DerivedField>
            </NeuralInput>
            <NeuralInput id="minMaxScaler(cat72)">
                <DerivedField optype="continuous" dataType="double">
                    <FieldRef field="minMaxScaler(cat72)"/>
                </DerivedField>
            </NeuralInput>
            <NeuralInput id="minMaxScaler(cat91)">
                <DerivedField optype="continuous" dataType="double">
                    <FieldRef field="minMaxScaler(cat91)"/>
                </DerivedField>
            </NeuralInput>
            <NeuralInput id="minMaxScaler(cat73)">
                <DerivedField optype="continuous" dataType="double">
                    <FieldRef field="minMaxScaler(cat73)"/>
                </DerivedField>
            </NeuralInput>
            <NeuralInput id="minMaxScaler(cat57)">
                <DerivedField optype="continuous" dataType="double">
                    <FieldRef field="minMaxScaler(cat57)"/>
                </DerivedField>
            </NeuralInput>
            <NeuralInput id="minMaxScaler(cat87)">
                <DerivedField optype="continuous" dataType="double">
                    <FieldRef field="minMaxScaler(cat87)"/>
                </DerivedField>
            </NeuralInput>
            <NeuralInput id="minMaxScaler(cat75)">
                <DerivedField optype="continuous" dataType="double">
                    <FieldRef field="minMaxScaler(cat75)"/>
                </DerivedField>
            </NeuralInput>
            <NeuralInput id="minMaxScaler(cat54)">
                <DerivedField optype="continuous" dataType="double">
                    <FieldRef field="minMaxScaler(cat54)"/>
                </DerivedField>
            </NeuralInput>
            <NeuralInput id="minMaxScaler(cat33)">
                <DerivedField optype="continuous" dataType="double">
                    <FieldRef field="minMaxScaler(cat33)"/>
                </DerivedField>
            </NeuralInput>
            <NeuralInput id="minMaxScaler(cat61)">
                <DerivedField optype="continuous" dataType="double">
                    <FieldRef field="minMaxScaler(cat61)"/>
                </DerivedField>
            </NeuralInput>
            <NeuralInput id="minMaxScaler(cat59)">
                <DerivedField optype="continuous" dataType="double">
                    <FieldRef field="minMaxScaler(cat59)"/>
                </DerivedField>
            </NeuralInput>
            <NeuralInput id="minMaxScaler(cat63)">
                <DerivedField optype="continuous" dataType="double">
                    <FieldRef field="minMaxScaler(cat63)"/>
                </DerivedField>
            </NeuralInput>
            <NeuralInput id="minMaxScaler(cat9)">
                <DerivedField optype="continuous" dataType="double">
                    <FieldRef field="minMaxScaler(cat9)"/>
                </DerivedField>
            </NeuralInput>
            <NeuralInput id="minMaxScaler(cat99)">
                <DerivedField optype="continuous" dataType="double">
                    <FieldRef field="minMaxScaler(cat99)"/>
                </DerivedField>
            </NeuralInput>
            <NeuralInput id="minMaxScaler(cat76)">
                <DerivedField optype="continuous" dataType="double">
                    <FieldRef field="minMaxScaler(cat76)"/>
                </DerivedField>
            </NeuralInput>
            <NeuralInput id="minMaxScaler(cat95)">
                <DerivedField optype="continuous" dataType="double">
                    <FieldRef field="minMaxScaler(cat95)"/>
                </DerivedField>
            </NeuralInput>
            <NeuralInput id="minMaxScaler(u0)">
                <DerivedField optype="continuous" dataType="double">
                    <FieldRef field="minMaxScaler(u0)"/>
                </DerivedField>
            </NeuralInput>
            <NeuralInput id="minMaxScaler(cat86)">
                <DerivedField optype="continuous" dataType="double">
                    <FieldRef field="minMaxScaler(cat86)"/>
                </DerivedField>
            </NeuralInput>
            <NeuralInput id="minMaxScaler(cat97)">
                <DerivedField optype="continuous" dataType="double">
                    <FieldRef field="minMaxScaler(cat97)"/>
                </DerivedField>
            </NeuralInput>
            <NeuralInput id="minMaxScaler(cat58)">
                <DerivedField optype="continuous" dataType="double">
                    <FieldRef field="minMaxScaler(cat58)"/>
                </DerivedField>
            </NeuralInput>
            <NeuralInput id="minMaxScaler(cat69)">
                <DerivedField optype="continuous" dataType="double">
                    <FieldRef field="minMaxScaler(cat69)"/>
                </DerivedField>
            </NeuralInput>
            <NeuralInput id="minMaxScaler(cat88)">
                <DerivedField optype="continuous" dataType="double">
                    <FieldRef field="minMaxScaler(cat88)"/>
                </DerivedField>
            </NeuralInput>
            <NeuralInput id="minMaxScaler(cat0)">
                <DerivedField optype="continuous" dataType="double">
                    <FieldRef field="minMaxScaler(cat0)"/>
                </DerivedField>
            </NeuralInput>
            <NeuralInput id="minMaxScaler(cat56)">
                <DerivedField optype="continuous" dataType="double">
                    <FieldRef field="minMaxScaler(cat56)"/>
                </DerivedField>
            </NeuralInput>
            <NeuralInput id="minMaxScaler(u2)">
                <DerivedField optype="continuous" dataType="double">
                    <FieldRef field="minMaxScaler(u2)"/>
                </DerivedField>
            </NeuralInput>
            <NeuralInput id="minMaxScaler(cat85)">
                <DerivedField optype="continuous" dataType="double">
                    <FieldRef field="minMaxScaler(cat85)"/>
                </DerivedField>
            </NeuralInput>
            <NeuralInput id="minMaxScaler(cat25)">
                <DerivedField optype="continuous" dataType="double">
                    <FieldRef field="minMaxScaler(cat25)"/>
                </DerivedField>
            </NeuralInput>
            <NeuralInput id="minMaxScaler(cat94)">
                <DerivedField optype="continuous" dataType="double">
                    <FieldRef field="minMaxScaler(cat94)"/>
                </DerivedField>
            </NeuralInput>
            <NeuralInput id="minMaxScaler(u6)">
                <DerivedField optype="continuous" dataType="double">
                    <FieldRef field="minMaxScaler(u6)"/>
                </DerivedField>
            </NeuralInput>
            <NeuralInput id="minMaxScaler(cat47)">
                <DerivedField optype="continuous" dataType="double">
                    <FieldRef field="minMaxScaler(cat47)"/>
                </DerivedField>
            </NeuralInput>
            <NeuralInput id="minMaxScaler(cat51)">
                <DerivedField optype="continuous" dataType="double">
                    <FieldRef field="minMaxScaler(cat51)"/>
                </DerivedField>
            </NeuralInput>
            <NeuralInput id="minMaxScaler(cat80)">
                <DerivedField optype="continuous" dataType="double">
                    <FieldRef field="minMaxScaler(cat80)"/>
                </DerivedField>
            </NeuralInput>
            <NeuralInput id="minMaxScaler(cat93)">
                <DerivedField optype="continuous" dataType="double">
                    <FieldRef field="minMaxScaler(cat93)"/>
                </DerivedField>
            </NeuralInput>
            <NeuralInput id="minMaxScaler(cat5)">
                <DerivedField optype="continuous" dataType="double">
                    <FieldRef field="minMaxScaler(cat5)"/>
                </DerivedField>
            </NeuralInput>
            <NeuralInput id="minMaxScaler(cat18)">
                <DerivedField optype="continuous" dataType="double">
                    <FieldRef field="minMaxScaler(cat18)"/>
                </DerivedField>
            </NeuralInput>
            <NeuralInput id="minMaxScaler(cat79)">
                <DerivedField optype="continuous" dataType="double">
                    <FieldRef field="minMaxScaler(cat79)"/>
                </DerivedField>
            </NeuralInput>
            <NeuralInput id="minMaxScaler(cat48)">
                <DerivedField optype="continuous" dataType="double">
                    <FieldRef field="minMaxScaler(cat48)"/>
                </DerivedField>
            </NeuralInput>
            <NeuralInput id="minMaxScaler(cat78)">
                <DerivedField optype="continuous" dataType="double">
                    <FieldRef field="minMaxScaler(cat78)"/>
                </DerivedField>
            </NeuralInput>
            <NeuralInput id="minMaxScaler(cat65)">
                <DerivedField optype="continuous" dataType="double">
                    <FieldRef field="minMaxScaler(cat65)"/>
                </DerivedField>
            </NeuralInput>
            <NeuralInput id="minMaxScaler(cat14)">
                <DerivedField optype="continuous" dataType="double">
                    <FieldRef field="minMaxScaler(cat14)"/>
                </DerivedField>
            </NeuralInput>
            <NeuralInput id="minMaxScaler(cat50)">
                <DerivedField optype="continuous" dataType="double">
                    <FieldRef field="minMaxScaler(cat50)"/>
                </DerivedField>
            </NeuralInput>
            <NeuralInput id="minMaxScaler(cat30)">
                <DerivedField optype="continuous" dataType="double">
                    <FieldRef field="minMaxScaler(cat30)"/>
                </DerivedField>
            </NeuralInput>
            <NeuralInput id="minMaxScaler(cat31)">
                <DerivedField optype="continuous" dataType="double">
                    <FieldRef field="minMaxScaler(cat31)"/>
                </DerivedField>
            </NeuralInput>
            <NeuralInput id="minMaxScaler(cat92)">
                <DerivedField optype="continuous" dataType="double">
                    <FieldRef field="minMaxScaler(cat92)"/>
                </DerivedField>
            </NeuralInput>
            <NeuralInput id="minMaxScaler(cat28)">
                <DerivedField optype="continuous" dataType="double">
                    <FieldRef field="minMaxScaler(cat28)"/>
                </DerivedField>
            </NeuralInput>
            <NeuralInput id="minMaxScaler(cat38)">
                <DerivedField optype="continuous" dataType="double">
                    <FieldRef field="minMaxScaler(cat38)"/>
                </DerivedField>
            </NeuralInput>
            <NeuralInput id="minMaxScaler(cat64)">
                <DerivedField optype="continuous" dataType="double">
                    <FieldRef field="minMaxScaler(cat64)"/>
                </DerivedField>
            </NeuralInput>
            <NeuralInput id="minMaxScaler(cat62)">
                <DerivedField optype="continuous" dataType="double">
                    <FieldRef field="minMaxScaler(cat62)"/>
                </DerivedField>
            </NeuralInput>
            <NeuralInput id="minMaxScaler(cat6)">
                <DerivedField optype="continuous" dataType="double">
                    <FieldRef field="minMaxScaler(cat6)"/>
                </DerivedField>
            </NeuralInput>
            <NeuralInput id="minMaxScaler(cat39)">
                <DerivedField optype="continuous" dataType="double">
                    <FieldRef field="minMaxScaler(cat39)"/>
                </DerivedField>
            </NeuralInput>
            <NeuralInput id="minMaxScaler(cat45)">
                <DerivedField optype="continuous" dataType="double">
                    <FieldRef field="minMaxScaler(cat45)"/>
                </DerivedField>
            </NeuralInput>
            <NeuralInput id="minMaxScaler(cat66)">
                <DerivedField optype="continuous" dataType="double">
                    <FieldRef field="minMaxScaler(cat66)"/>
                </DerivedField>
            </NeuralInput>
            <NeuralInput id="minMaxScaler(cat12)">
                <DerivedField optype="continuous" dataType="double">
                    <FieldRef field="minMaxScaler(cat12)"/>
                </DerivedField>
            </NeuralInput>
            <NeuralInput id="minMaxScaler(cat82)">
                <DerivedField optype="continuous" dataType="double">
                    <FieldRef field="minMaxScaler(cat82)"/>
                </DerivedField>
            </NeuralInput>
            <NeuralInput id="minMaxScaler(u7)">
                <DerivedField optype="continuous" dataType="double">
                    <FieldRef field="minMaxScaler(u7)"/>
                </DerivedField>
            </NeuralInput>
            <NeuralInput id="minMaxScaler(u8)">
                <DerivedField optype="continuous" dataType="double">
                    <FieldRef field="minMaxScaler(u8)"/>
                </DerivedField>
            </NeuralInput>
            <NeuralInput id="minMaxScaler(cat90)">
                <DerivedField optype="continuous" dataType="double">
                    <FieldRef field="minMaxScaler(cat90)"/>
                </DerivedField>
            </NeuralInput>
        </NeuralInputs>
        <NeuralLayer>
            <Neuron id="00" bias="-0.10069888431100196">
                <Con from="minMaxScaler(age)" weight="-0.17469929556299355"/>
                <Con from="minMaxScaler(woman)" weight="0.2786750864973973"/>
                <Con from="minMaxScaler(cat17)" weight="-0.03139479763568897"/>
                <Con from="minMaxScaler(cat74)" weight="-0.06118670477374428"/>
                <Con from="minMaxScaler(cat42)" weight="-0.001693737440827608"/>
                <Con from="minMaxScaler(cat96)" weight="-0.01296236625500958"/>
                <Con from="minMaxScaler(cat13)" weight="0.11411049937759817"/>
                <Con from="minMaxScaler(cat16)" weight="0.15864489032115114"/>
                <Con from="minMaxScaler(cat11)" weight="-0.01835976411235323"/>
                <Con from="minMaxScaler(cat35)" weight="0.05021606542233042"/>
                <Con from="minMaxScaler(cat60)" weight="0.06779975035112995"/>
                <Con from="minMaxScaler(cat68)" weight="0.07238395326002052"/>
                <Con from="minMaxScaler(cat10)" weight="-0.029628394301145486"/>
                <Con from="minMaxScaler(cat37)" weight="-0.062464520845592814"/>
                <Con from="minMaxScaler(u4)" weight="-0.016956849311612846"/>
                <Con from="minMaxScaler(cat29)" weight="0.11916196940497917"/>
                <Con from="minMaxScaler(cat98)" weight="0.05877133534587993"/>
                <Con from="minMaxScaler(cat40)" weight="0.0060758949827384254"/>
                <Con from="minMaxScaler(cat46)" weight="-0.03527513508475803"/>
                <Con from="minMaxScaler(cat2)" weight="-0.0068359633048125845"/>
                <Con from="minMaxScaler(cat41)" weight="0.0008873165859607164"/>
                <Con from="minMaxScaler(cat44)" weight="-0.0667785791071931"/>
                <Con from="minMaxScaler(cat89)" weight="0.08865042068177144"/>
                <Con from="minMaxScaler(cat53)" weight="-0.10576344725262828"/>
                <Con from="minMaxScaler(cat23)" weight="-0.02415474208345127"/>
                <Con from="minMaxScaler(cat21)" weight="-0.023223081740981418"/>
                <Con from="minMaxScaler(cat36)" weight="0.034165113256373794"/>
                <Con from="minMaxScaler(cat8)" weight="-0.0557465100535691"/>
                <Con from="minMaxScaler(cat20)" weight="0.038107878529194714"/>
                <Con from="minMaxScaler(cat67)" weight="-0.05648465065790924"/>
                <Con from="minMaxScaler(cat4)" weight="-0.0607441822249103"/>
                <Con from="minMaxScaler(cat81)" weight="0.04251394121922875"/>
                <Con from="minMaxScaler(cat84)" weight="0.05224684608095033"/>
                <Con from="minMaxScaler(cat27)" weight="-0.01897462039678129"/>
                <Con from="minMaxScaler(cat55)" weight="0.05026945307175133"/>
                <Con from="minMaxScaler(u9)" weight="-0.011310219934026202"/>
                <Con from="minMaxScaler(cat34)" weight="0.04831123669881078"/>
                <Con from="minMaxScaler(cat22)" weight="0.044891123539234044"/>
                <Con from="minMaxScaler(cat71)" weight="0.021855230898431662"/>
                <Con from="minMaxScaler(cat32)" weight="-0.017858837009252924"/>
                <Con from="minMaxScaler(cat3)" weight="-0.031309425165686904"/>
                <Con from="minMaxScaler(cat43)" weight="-0.0558588754335415"/>
                <Con from="minMaxScaler(cat52)" weight="0.05974736751442601"/>
                <Con from="minMaxScaler(cat83)" weight="0.0769952790378935"/>
                <Con from="minMaxScaler(cat7)" weight="0.034001276986752205"/>
                <Con from="minMaxScaler(cat26)" weight="-0.007185863968039058"/>
                <Con from="minMaxScaler(cat15)" weight="-0.10109878874988942"/>
                <Con from="minMaxScaler(u3)" weight="0.007542684646516908"/>
                <Con from="minMaxScaler(cat70)" weight="-0.00784855234024036"/>
                <Con from="minMaxScaler(u5)" weight="0.016131322219194423"/>
                <Con from="minMaxScaler(cat24)" weight="0.17291279660028538"/>
                <Con from="minMaxScaler(cat49)" weight="0.14125969835256494"/>
                <Con from="minMaxScaler(cat1)" weight="0.08186594913683301"/>
                <Con from="minMaxScaler(cat19)" weight="-0.016995657496231966"/>
                <Con from="minMaxScaler(u1)" weight="-0.012467584662745416"/>
                <Con from="minMaxScaler(cat77)" weight="-0.1553405772568814"/>
                <Con from="minMaxScaler(cat72)" weight="-0.058323201508694786"/>
                <Con from="minMaxScaler(cat91)" weight="0.04448475916650037"/>
                <Con from="minMaxScaler(cat73)" weight="0.06227986396073548"/>
                <Con from="minMaxScaler(cat57)" weight="-0.03302796453385769"/>
                <Con from="minMaxScaler(cat87)" weight="-0.07396274227920234"/>
                <Con from="minMaxScaler(cat75)" weight="-0.11734603604140881"/>
                <Con from="minMaxScaler(cat54)" weight="0.054353302216171455"/>
                <Con from="minMaxScaler(cat33)" weight="0.1939442779354138"/>
                <Con from="minMaxScaler(cat61)" weight="-0.04252254033888691"/>
                <Con from="minMaxScaler(cat59)" weight="-0.0695705319277792"/>
                <Con from="minMaxScaler(cat63)" weight="-0.014901128441930091"/>
                <Con from="minMaxScaler(cat9)" weight="0.022704587917842044"/>
                <Con from="minMaxScaler(cat99)" weight="-0.07106283169256453"/>
                <Con from="minMaxScaler(cat76)" weight="-0.003521496291955523"/>
                <Con from="minMaxScaler(cat95)" weight="0.026014334363804677"/>
                <Con from="minMaxScaler(u0)" weight="0.0035520670845854345"/>
                <Con from="minMaxScaler(cat86)" weight="-0.0021895430938664623"/>
                <Con from="minMaxScaler(cat97)" weight="0.059599054721315894"/>
                <Con from="minMaxScaler(cat58)" weight="0.018934269082230556"/>
                <Con from="minMaxScaler(cat69)" weight="0.09548891297709587"/>
                <Con from="minMaxScaler(cat88)" weight="0.08181140057074024"/>
                <Con from="minMaxScaler(cat0)" weight="-0.11435634430560897"/>
                <Con from="minMaxScaler(cat56)" weight="-0.037024943431846355"/>
                <Con from="minMaxScaler(u2)" weight="0.013568562940336846"/>
                <Con from="minMaxScaler(cat85)" weight="-0.06543674326759923"/>
                <Con from="minMaxScaler(cat25)" weight="-0.049544960648261145"/>
                <Con from="minMaxScaler(cat94)" weight="-0.07598398169077768"/>
                <Con from="minMaxScaler(u6)" weight="-0.002299577845809273"/>
                <Con from="minMaxScaler(cat47)" weight="0.13762406110215597"/>
                <Con from="minMaxScaler(cat51)" weight="-0.08022629781436419"/>
                <Con from="minMaxScaler(cat80)" weight="-0.0038922147227701746"/>
                <Con from="minMaxScaler(cat93)" weight="0.15106090197643976"/>
                <Con from="minMaxScaler(cat5)" weight="0.03535411983419844"/>
                <Con from="minMaxScaler(cat18)" weight="-0.1841918704585454"/>
                <Con from="minMaxScaler(cat79)" weight="0.04957474973829935"/>
                <Con from="minMaxScaler(cat48)" weight="-0.003263363290805615"/>
                <Con from="minMaxScaler(cat78)" weight="-0.028293897273169208"/>
                <Con from="minMaxScaler(cat65)" weight="0.00210487103745879"/>
